<?xml version="1.0"?>
<opencv_storage>
<my_svm type_id="opencv-ml-svm">
  <svm_type>C_SVC</svm_type>
  <kernel><type>LINEAR</type></kernel>
  <C>1.0000000000000001e-001</C>
  <term_criteria><epsilon>2.2204460492503131e-016</epsilon>
    <iterations>100</iterations></term_criteria>
  <var_all>324</var_all>
  <var_count>324</var_count>
  <class_count>2</class_count>
  <class_labels type_id="opencv-matrix">
    <rows>1</rows>
    <cols>2</cols>
    <dt>i</dt>
    <data>
      -1 1</data></class_labels>
  <sv_total>1</sv_total>
  <support_vectors>
    <_>
      1.76913068e-001 -2.29362473e-001 -4.12279487e-001 -8.23166594e-002
      3.53931010e-001 1.24707662e-001 9.98468027e-002 2.08325580e-001
      3.34543228e-001 -1.89939067e-001 -3.23445141e-001 -3.43062967e-001
      -1.05824452e-002 8.31804574e-002 3.26864645e-002 6.25164211e-002
      5.75033389e-002 -7.26226494e-002 1.80387214e-001 -1.34284608e-002
      -4.07908916e-001 -4.04424518e-001 -1.58251971e-001 7.63783902e-002
      5.38744889e-002 -1.19346259e-002 5.56882508e-002 5.22459261e-002
      -2.18632556e-002 -1.19443350e-001 -1.64588571e-001
      -5.06730713e-002 -2.14640409e-001 -5.60995825e-002
      -5.33765554e-002 -6.91382810e-002 -2.30874762e-001
      -9.57550704e-002 -9.69675630e-002 3.08264753e-005 1.75446630e-001
      -2.13230774e-002 -1.45041207e-002 -7.81644583e-002
      -1.87571481e-001 -2.70189106e-001 -9.21898931e-002
      -1.11485057e-001 -8.73769745e-002 9.69858915e-002 -6.25913516e-002
      -8.16711560e-002 -1.40026331e-001 -3.05959731e-001 1.22232810e-001
      -2.35721134e-002 -8.22814107e-002 -6.40427247e-002 3.04593414e-004
      -6.53520226e-002 7.94122294e-002 6.86558262e-002 1.90799888e-002
      4.26603183e-002 -3.25411707e-002 -5.25705405e-002 -1.41377375e-001
      -1.31128794e-002 -2.99558043e-002 1.14027068e-001 7.05916509e-002
      1.41376741e-002 -5.26409447e-002 3.68889496e-002 7.43179843e-002
      6.79156138e-003 1.27377212e-001 7.41073415e-002 -2.98753995e-002
      -1.18556380e-001 -2.14495420e-001 9.68474597e-002 1.48347571e-001
      5.79655617e-002 -4.73843366e-002 1.42459542e-001 -1.50151541e-002
      -2.03019217e-001 -1.87020287e-001 -3.12024578e-002 1.89555797e-003
      -2.85898559e-002 4.92994301e-002 -1.58479419e-002 6.07012352e-003
      4.37401868e-002 -6.85458072e-003 3.47630557e-004 -2.36943122e-002
      8.96206051e-002 7.52619132e-002 8.28000717e-003 -5.31837679e-002
      1.22719496e-001 -1.02963947e-001 -2.48712718e-001 -2.59593815e-001
      -1.06265247e-001 5.06855696e-002 -3.56519483e-002 -9.16892067e-002
      -2.72281080e-001 -2.56713510e-001 -2.42606848e-002 8.14773962e-002
      -3.46680917e-002 -2.92290933e-002 7.53512885e-003 7.59675130e-002
      8.02943036e-002 -8.80713612e-002 -1.23182774e-001 -1.26889586e-001
      -4.25248779e-002 -6.89179897e-002 -8.68787616e-002 9.93094444e-002
      -8.77296329e-002 9.76574048e-002 -1.80095267e-002 -1.57915980e-001
      -1.32801920e-001 -1.89096883e-001 -1.36907369e-001 9.46026295e-002
      -7.19291717e-002 -1.95095658e-001 -7.21391663e-002
      -1.31033838e-001 -7.06530437e-002 -1.34404704e-001
      -3.09425574e-002 3.75450440e-002 1.41674541e-002 1.12168938e-001
      4.25258577e-002 7.41419718e-002 -2.82841679e-002 -3.81187461e-002
      -1.08053349e-001 3.94005030e-002 4.07787127e-004 4.10702601e-002
      1.22716978e-001 -2.16472726e-002 -3.15090194e-002 -5.16115651e-002
      1.22592999e-002 -4.64767404e-002 5.02796546e-002 -4.41006161e-002
      8.46446306e-002 9.90721434e-002 -8.20615664e-002 -1.70675650e-001
      -2.36252427e-001 -4.39171381e-002 -1.16663605e-001
      -8.97538811e-002 -5.23142517e-002 1.27327204e-001 4.15282249e-002
      -3.92663553e-002 -6.45245016e-002 -7.75923282e-002 1.23537935e-001
      3.68283913e-002 -1.91375930e-002 -1.46604506e-002 4.08101827e-002
      3.91186103e-002 -1.24079436e-001 -4.44086231e-002 -9.02101249e-002
      -3.27081084e-002 -1.08396068e-001 1.32958628e-002 1.20189758e-002
      1.35337524e-002 8.01410154e-002 -5.22332080e-002 -6.50831461e-002
      -1.01844713e-001 6.38919091e-003 -1.11536831e-002 -3.58504280e-002
      -8.75588581e-002 9.64899268e-003 -2.44035479e-003 9.19651520e-003
      1.25855254e-002 -5.58201112e-002 2.22169850e-002 -5.60964942e-002
      4.27887291e-002 6.95120543e-002 -6.18052743e-002 2.81977300e-002
      -1.32796839e-001 -1.08204454e-001 -1.20234892e-001
      -7.52647966e-003 -4.14138138e-002 6.37941808e-002 3.43135297e-002
      8.99206102e-002 1.41455978e-001 2.27593780e-002 1.06459551e-001
      1.79228082e-001 -1.39748733e-002 -2.63697654e-001 -3.34745586e-001
      -2.12082341e-001 8.23611468e-002 -5.63591681e-002 -9.45691913e-002
      -1.02975145e-001 -1.41002178e-001 -7.25370571e-002
      -1.04716815e-001 -4.30272259e-002 -4.66736965e-002
      -6.91179885e-003 2.53296137e-001 1.89711094e-001 1.17275476e-001
      2.30666935e-001 2.26875901e-001 -1.05695628e-001 -3.90974075e-001
      -3.55598390e-001 9.82485712e-002 4.25624959e-002 1.16448566e-001
      1.19273476e-002 -3.06227952e-002 6.10827189e-003 -4.00505327e-002
      -2.58686155e-001 -1.59075990e-001 -7.14836791e-002
      -3.69482227e-002 -6.85821250e-002 -8.07056054e-002
      -1.77587301e-001 -7.78025985e-002 -9.59628746e-002 3.96209732e-002
      4.19353880e-002 1.05603971e-002 3.07416730e-002 1.08502349e-002
      4.23132926e-002 -1.44876139e-002 1.39056727e-001 -4.08667475e-002
      4.52684462e-002 -2.99714901e-003 -1.87454559e-002 -1.41466662e-001
      4.81312238e-002 4.31658700e-002 -9.40753594e-002 1.85589939e-002
      4.08333121e-003 5.09861708e-002 -6.47486523e-002 -1.29890278e-001
      -3.84473890e-001 -2.08825514e-001 -1.37235031e-001
      -1.27472738e-002 1.34286612e-001 -5.40389940e-002 1.30191311e-001
      -5.03643006e-002 -2.25745782e-001 -6.11762926e-002
      -5.60955703e-002 -3.24337860e-003 -1.08777573e-002 5.45179881e-002
      -2.60282476e-002 1.07616194e-001 1.47084683e-001 3.23173180e-002
      2.20939592e-002 -2.08148330e-001 -1.33811295e-001 -4.63428386e-002
      2.94945389e-002 -7.52548203e-002 -5.26460931e-002 1.36586860e-001
      1.17796324e-001 -1.93670884e-001 -2.07515329e-001 -3.94399352e-002
      3.55815925e-002 2.21080333e-001 -1.30732451e-002 1.63673937e-001
      1.03685617e-001 -3.03664450e-002 -3.65584716e-002 -2.90943027e-001
      -6.69205859e-002 -5.22171706e-002 1.90434709e-001 -1.67155221e-001
      -1.69300482e-001 6.08773679e-002 1.00761168e-001</_></support_vectors>
  <decision_functions>
    <_>
      <sv_count>1</sv_count>
      <rho>-2.0914460539817812e+000</rho>
      <alpha>
        1.</alpha>
      <index>
        0</index></_></decision_functions></my_svm>
</opencv_storage>
